300 16
1 0.38184497 -0.245479 -0.33944014 0.62819207 0.38114002 0.23546687 0.6766605 0.41102022 -0.23643017 0.0138404975 -0.44692084 -0.51842445 0.007871865 0.15862538 -0.0622488 0.41094548
2 0.021647051 -0.083325334 -0.29746982 -0.7528931 0.6030169 0.5112182 -0.5660113 0.33360225 -0.22608137 0.124940485 -0.42868027 0.0013519287 -0.7720983 -0.14923444 -0.083029136 0.19570717
3 0.5509175 0.11862096 -0.6461447 -0.38948384 0.8315218 0.4335731 0.0005400384 0.1353364 0.12465667 -0.48478365 -0.716007 -0.18254583 -0.7099685 -0.17954966 0.25394946 0.19127363
5 0.33908197 0.064484075 -0.06281141 -0.42028296 0.56001556 -0.43533954 0.28864482 -0.019128976 -0.0543899 0.7734818 -0.26636088 -0.27298132 0.77805656 -0.21916583 -1.1022874 0.645469
4 0.08070542 -0.10970934 0.22740921 0.37528777 0.62336147 0.07396661 0.61273587 0.6993803 -0.5175227 0.37287807 -0.35731572 -0.015409488 0.19181529 0.3899314 -0.46312866 0.07171368
6 0.75631267 0.009486783 -0.27622294 -0.5455743 0.068114236 -0.36066213 -0.0015915262 0.2735928 0.008132653 0.7026299 0.03562228 -0.8377991 0.06683379 -0.45989394 -0.5034965 0.7387273
7 -0.37056607 -0.049838204 -0.47652757 -0.033336263 0.6471842 0.49592447 0.25082842 0.54766476 -0.14597473 1.2177591 0.3017675 0.09369873 0.4555865 -0.025149789 0.42885113 -0.06703315
8 0.023052897 -0.3418047 -0.34893242 0.5695028 0.42227036 0.48849925 0.2013351 0.50530535 -0.3945577 0.18341601 -0.36598352 0.08006994 0.7311314 0.2923514 0.42311412 0.7340219
9 0.3553373 -0.7384662 -0.41494876 -0.26640186 0.41470474 -0.20738444 -0.26819286 0.013335022 0.5444006 0.9108162 0.14588514 -0.23255113 0.59612656 -0.53084767 -0.6381591 0.5511661
10 -0.13156715 -0.5626423 0.251049 -0.062008422 0.97994405 0.10604884 0.7357506 0.29557863 -0.14327554 0.41702548 -0.16800912 -0.58857644 0.31164336 0.031255428 0.3668477 0.24801995
11 0.6921376 -0.018108472 -0.1270602 0.053325005 0.89735913 -0.4765953 -0.20692906 -0.24160239 0.28626397 0.7308512 0.06983017 -0.43159795 0.7064534 -0.5435497 -0.2967029 0.64859784
12 -0.18559949 -0.6146275 -0.118077785 0.0023805925 0.6231355 0.6886058 0.5673917 0.7183554 0.41511956 -0.2559388 -0.38573903 -0.7057384 -0.38362172 0.15462293 -0.45357752 -0.07687148
16 0.39200923 0.7520904 0.031182474 0.18699522 1.0149487 0.17894466 -1.1838626 0.035186157 0.1622971 0.3630472 -0.75370663 -0.041035496 -0.045828093 -0.14695801 -0.15549466 0.18067133
14 -0.7100147 0.23641972 -1.1548398 0.29979387 0.38848913 0.06969106 0.26140702 0.93785155 0.2905023 0.5350784 -0.29922232 0.37166184 0.311209 -0.23375271 0.094232924 -0.203659
15 0.64128375 -0.2166865 0.037738327 1.1925981 0.61980623 0.38556188 0.10601514 0.18096529 -0.14052086 0.5746114 -0.23185846 -0.11965077 -0.48864913 -0.12735026 -0.41276488 0.31854564
13 -0.0076817204 -0.3909653 -0.22095251 0.6936685 0.09572806 1.0625364 0.067328185 0.60235983 0.6001727 0.393697 -0.62382025 -0.46524316 0.23711918 -0.024691721 -0.41896468 0.31439987
18 -0.3842086 -0.3595724 -0.14498118 -0.2799299 0.41342118 0.12860067 -0.10878062 1.0427601 0.6142312 1.5044149 0.18932433 0.25404453 0.4660499 -0.48187336 -0.28325215 0.14169
17 1.0261102 0.21183541 -0.26959538 -0.70135564 1.0773567 -0.6453074 0.05280212 0.1876599 -0.05577534 -0.059957694 -0.27676952 0.5659351 -0.10426998 0.30523312 -0.1152961 0.5915457
19 0.49704555 0.17344268 -0.5426189 -0.87157863 0.6353308 0.10595441 -0.5709441 0.28364757 -0.30725622 0.13740122 0.08430759 -0.47629333 -0.8020708 0.502586 0.28386065 0.6121532
21 0.47674212 -0.5765314 -0.34441873 -0.30563262 0.8691008 0.13462262 -0.96823025 0.7513474 -0.98959786 -0.5182544 -0.51677936 -0.17099501 0.2391226 0.51559705 -0.086248666 0.14642343
22 0.11350946 0.32857877 -1.4882518 -0.58225924 0.6054507 -0.372846 0.20505467 0.33623016 0.27821496 -0.06170256 0.18431911 0.4105618 -0.22070247 0.043505363 -0.0021420822 0.0804844
20 0.93709487 -0.53264 -1.1734816 -0.28891712 0.2397611 -0.4665707 0.46447977 0.33331877 0.4334657 0.5877601 0.47141132 -0.107643664 0.20517768 -0.06354465 -0.33183616 0.1744136
24 -1.3895489 0.06265413 -1.0612308 -0.11465843 0.66318387 0.32383054 0.17868052 0.7944058 -0.073010854 0.82818574 0.24614418 -0.03861629 0.51811147 -0.7056886 -0.42621994 -0.008003639
23 -0.50050855 -0.39562947 -0.66559476 -0.5331368 0.0752586 0.7531935 -0.40855783 1.0850409 0.03168158 1.0631857 -0.094498634 0.12878701 0.0551042 -0.32260662 0.10097492 -0.22532488
25 0.81883836 -0.30951875 -0.28125653 0.51718664 0.20712633 0.18732636 -0.09440355 0.85174 -0.14182866 -0.01342367 -0.35046837 -0.71334296 0.57000035 0.94203824 -0.2506151 0.33874303
26 -0.60962135 1.1690769 -0.7555271 0.13188727 0.49554792 0.53284204 0.06709573 0.81346864 -0.45996365 1.0478338 0.37149104 -0.24311064 -0.043485772 -0.08523478 -0.11765303 -0.13008247
28 0.26916713 -0.17099221 -0.42296103 -0.3386399 0.7320873 -0.47025907 -0.7226997 0.6600093 -0.47549018 -0.20588583 -0.17990015 0.38609114 -0.5416467 0.48961362 -0.007029677 0.8600426
29 0.73809665 -0.2938265 -0.34557378 0.12028206 0.24463192 -0.08218256 0.8400187 0.32157427 -0.07081359 0.37708703 -0.16635686 -0.53404844 0.14758343 0.36111566 -0.47050345 0.16072112
27 0.23162271 0.21110095 0.111686625 -0.41224453 0.5406615 -0.93350226 0.40825406 0.8167339 0.06080113 0.48785493 0.29370767 -0.4450642 -0.36791566 -0.28553626 -0.8151263 0.74284077
30 1.3871683 0.64816654 -0.054090135 -0.76772785 0.35474956 0.20669186 0.14106493 0.90615207 0.047603223 0.18964168 -0.93116534 -0.08475899 -0.14048873 -0.0031072255 -0.4033212 -0.42306244
32 -0.3392191 0.03599683 0.4317126 0.55648094 1.0265304 0.2531597 -0.16266775 0.4801197 0.35763422 0.48616105 -0.17892265 -0.25743333 -0.4509394 0.99100775 -0.5531688 0.53550893
33 0.8111654 -0.14636102 -0.66469604 -0.14036642 0.2808173 1.2518451 -0.02750562 0.32150775 0.040977962 -0.060057938 -0.36473894 0.2912695 -0.5480457 -0.043245126 -0.1784376 0.2283861
35 0.15551803 -0.96037155 -0.6117647 -0.9409832 0.8710619 -0.04893887 -0.54535455 0.0884636 -0.14332058 0.085700676 -0.88283634 0.37051228 -0.56433046 0.18690231 -0.56211317 -0.2395128
31 -0.26035494 0.1658117 -0.26365247 -0.15613279 0.3985712 -0.7876328 -0.10416907 0.72870696 -1.0537866 0.79536206 -0.06885719 -0.6393367 0.03785152 0.05461443 -1.1330682 -0.03251825
37 0.23257986 -0.4817607 -0.41719505 1.0465372 0.31611142 0.20184337 0.28474936 0.7737186 -0.7245189 0.38549134 -0.26985896 0.25229597 -0.009169035 -0.29706958 0.29156512 0.5604311
36 0.10580155 -0.40672004 -0.11195379 0.54204565 0.2917228 0.45150802 0.203411 1.0713955 0.046143282 0.066098094 -0.29593897 -0.5951295 0.18099476 0.7894027 -0.43403354 0.12599702
34 1.0421498 0.58052516 0.1484994 0.03297955 0.62568617 -0.34387097 -0.23049927 0.7065579 -0.06805836 0.33691582 -0.82675225 0.2560023 -0.09995041 0.64370227 -0.42665145 -0.0733322
38 -0.26950458 -0.15548299 -0.37917367 0.57719743 0.66146666 0.003217832 0.94792014 1.0325161 0.10441563 -0.061760403 -0.83037645 -0.07280458 0.39078012 -0.3165931 -0.13966343 -0.34211808
41 0.99877524 -0.49383035 0.3567214 -1.210812 1.149287 -0.17501135 -0.04282421 0.5409935 -0.03359386 0.3113344 -0.4137968 0.07950492 -0.1361607 0.43963456 0.32053238 -0.0802171
45 -0.761765 -0.010146522 -0.4529887 0.7439976 0.8255661 -0.30612162 -0.016674707 1.4961693 0.8650738 0.7229599 0.0015799775 -0.038186163 0.023405626 0.13562857 0.13023852 -0.14033929
43 0.3907209 -0.056826174 -0.3983329 -0.4281407 0.41780078 0.060239967 -0.9624982 0.6610032 -0.24846806 0.2687125 -0.20253648 -0.07040109 -0.78104323 1.185113 -0.4360454 0.65469515
53 0.53871197 -0.07637336 -1.3514004 -0.09173739 0.7212513 -0.7061331 -0.048000105 -0.61209536 0.3720751 1.0834228 0.11564169 -0.5068504 0.44624755 -0.44082806 -0.18932651 0.17753372
50 0.5450014 0.21927318 -0.8331365 -0.6647061 0.8946993 -0.78537804 0.33366925 -0.30670437 -0.25416705 -0.341351 -0.7318902 -0.0008081817 0.11237031 -0.005003016 -0.42745772 0.68230027
54 -0.05132363 1.4609455 -0.37422785 -0.35436472 0.6295426 0.70741093 -0.4521048 0.6829316 -0.09727532 0.4969103 -0.3409285 -0.3038496 0.08930526 -0.19205566 0.33917305 -0.1772257
46 0.19098076 -0.2556964 -0.64836836 -0.300087 1.3940219 0.14320579 -0.29921916 0.07888578 0.40831947 -0.42135882 -0.42606503 -0.34982592 -0.24460195 -0.53843933 0.7239518 -0.16421174
47 0.10426283 -0.22894977 -0.4239169 -0.16809386 0.076113194 -0.33507374 0.14780882 -0.25377518 0.33216158 1.0460875 -0.5273824 -0.30989 0.21348837 -0.24245976 -0.88945 1.0796185
39 0.16986771 0.3104294 0.1621145 0.3070528 1.1218526 0.21484442 1.1025783 0.12628536 -0.35302368 0.7451404 -0.6014482 -0.2782478 0.55959594 -0.042012498 -0.01568275 -0.40305007
42 -0.28235608 -0.65984774 -0.5648905 0.52213377 0.076018065 0.34489316 0.7754246 0.7653361 -0.23673168 0.5145873 -0.6670698 -0.37698856 0.06793674 0.9638503 -0.27836385 0.33625466
44 -0.1788405 -0.31433678 -0.1543363 0.5971337 0.13380457 0.077360466 0.30557373 0.17257096 0.54171294 0.83575976 -0.68570805 -0.31176284 -0.5808221 0.36197218 -0.6988335 0.882389
49 0.19551863 0.030500975 -0.03151253 -0.30744717 0.70172036 -0.32800663 0.105510056 0.7827023 -0.5633224 -0.08585411 0.18006882 0.45656762 -0.54836243 -0.20759974 -0.3501386 0.7132958
40 -0.32238564 0.25649247 -0.6680105 -0.0926125 0.120542675 0.20300388 0.3988234 0.030747825 -0.41189724 0.1800359 -1.2687808 0.08462623 0.79801345 0.009851443 -0.010830404 1.4706001
51 -0.15334947 0.83616483 -0.8482856 -0.64501315 0.7741878 0.52496266 -0.42361793 0.42303437 0.16902691 -0.50747883 -0.44126227 -0.76277816 0.032189358 -0.00988885 0.18104158 0.09380424
48 0.34752995 -0.09249154 -0.3897214 -0.8681854 1.1466585 -0.4697613 0.009191137 -0.33657297 -0.35522187 -0.1844895 -0.5954636 0.37007272 0.51641256 0.12476384 -0.9868874 0.6256459
52 -0.021832952 -0.16785295 -0.40994436 0.5636412 0.19367093 0.70562404 0.65870166 0.87226254 0.5339041 -0.22479174 -0.8224867 0.0060386173 0.49742824 -0.22329701 -0.6786304 0.3031809
58 0.77714205 0.8369435 -0.86051583 -0.4465041 1.6780511 0.3550066 -0.64563835 -0.5108336 0.34903225 0.002779965 0.058973227 0.46024868 0.17194507 0.7882327 -0.21087484 0.55225796
61 -0.3683223 -0.096427865 -0.8539402 0.04042576 0.13593888 -0.26211047 0.017734708 1.5167409 0.782579 1.359958 -0.062018164 0.055268623 0.41367182 -0.37466708 0.5352223 0.18098831
65 0.11022301 -1.2232358 -0.13041623 -0.22149324 0.94452024 0.10357353 -0.78356016 0.5667509 -0.754713 -0.043274224 -1.0328767 -0.032585714 -0.20884678 -0.01080319 0.5717448 0.16380173
70 0.059580613 0.76989335 -0.883291 -0.68050504 1.4486762 0.47316614 -0.3115006 -0.3482355 -0.15100513 -0.4457563 -0.025538618 0.19540258 0.82147455 0.54496396 -0.782446 0.39282408
74 0.97197735 -0.45489267 -0.8378106 -0.043907613 0.28944823 1.1458704 0.39367887 0.5825883 0.41962644 -0.08903226 0.16599484 0.79282635 -0.53306115 -0.19181125 -0.68170017 0.51543576
63 0.029810514 -0.40964392 -1.3028047 0.11849934 1.2992734 -0.098938525 -0.7528378 -0.110136345 0.6318061 0.1485113 0.05414308 -0.14021538 -0.16065796 -0.5339553 0.22462751 -0.64182603
60 -0.14330944 0.06688883 -0.64911073 -0.5905364 0.46262136 0.37615854 0.030936796 0.48898804 -0.48859906 0.031707697 -0.21320084 0.058322947 -1.3453654 -0.42224932 0.3261582 1.045033
75 -0.3936006 0.90354776 -0.47020835 -0.19324413 1.0056055 0.461435 0.107203744 0.9416846 0.12732132 0.75892234 -0.28799674 0.047874305 0.82359713 -0.41949517 0.5927386 -0.6079189
83 -0.39810854 0.7515204 -0.3340728 -0.13778885 1.1468527 0.51061124 0.8177719 0.34813434 -0.2033403 1.1282107 -0.19306268 0.047578987 0.5401568 0.007315156 0.30808133 -0.5718853
77 -0.6183221 -0.10792602 -1.1721659 0.5115479 0.9565492 0.2629484 -0.3011303 0.48513505 0.5677309 0.5462073 0.18788792 -0.27020016 0.040128957 -0.40788212 0.46657285 -0.4866541
79 -0.07181741 0.19251223 -1.0019023 -0.430923 0.5506341 0.06707881 0.39495388 0.73693115 -0.41827002 -0.12881634 0.51180947 0.7247915 -0.78640676 -0.502672 -0.058724847 0.9060832
72 0.18769975 0.10863222 -0.7399563 0.35257986 0.3876415 -0.13130091 0.10865672 0.08595752 -0.0050858306 -0.43084875 -0.51619005 -1.3456237 0.48671648 0.09543602 -0.012338885 1.0508615
84 -0.21541901 -1.1285019 -0.25791603 -0.80117095 0.9442609 0.24497448 -0.30831057 0.25308272 -0.29381824 -0.0063471664 -1.0724717 0.035599906 -0.71256393 0.08062871 -0.14398867 -0.09586974
71 0.7575398 -0.3543457 0.15814064 -0.50678104 0.6358478 0.18794124 -0.21176243 -0.19976842 -0.24785008 1.2464368 0.31758434 -0.43461338 0.08169754 -0.40704206 -0.06826338 0.47859374
86 0.033081837 -0.62274665 0.70041 0.14776178 0.97704583 0.15488465 0.28839275 1.0235541 0.29443294 0.52330166 -0.15595362 -0.1914172 -0.35286382 0.2449439 -0.3650303 -0.2327648
68 0.40246004 0.32439908 -0.9496726 -0.5530127 0.71760064 -1.2365544 0.2410865 -0.35462177 -0.4476084 0.5575046 -0.49755275 -0.53881794 0.3854003 -0.3572027 -0.6962615 0.48383728
76 -0.53880256 -0.31464773 -0.8243231 0.112511754 -0.124581575 1.0505869 -0.25124434 1.0271677 0.35423967 1.0081536 -0.44363818 0.08412189 0.2846244 -0.21085241 -0.24434443 -0.18775243
59 0.503142 -0.37296638 -0.305413 -0.056104213 0.07995639 0.9175795 0.8772791 0.91397405 0.900031 -0.019628486 -0.5587769 0.20845622 -0.23970117 -0.041366216 -0.81394273 0.21922733
67 0.58177614 0.67653966 -0.1365523 -0.15314017 0.93968916 0.34470993 -0.8754476 -0.041835453 0.34691778 0.12330984 -0.989027 -0.40123567 -0.7126693 -0.7421466 -0.22846502 0.22447562
73 -0.42488927 -0.69237185 -0.5013441 0.8470362 0.035899132 0.069930546 0.2615494 0.7112791 0.57580364 0.788479 -1.1052442 -0.35612231 -0.2940414 0.46576378 -0.050436925 0.46780807
57 -0.814953 0.081806794 -1.0508655 -0.12502399 0.17540057 0.9560066 -0.08296848 0.85021734 -0.38439304 1.2832832 0.3440175 -0.0539213 0.2929236 -0.031565826 -0.2927395 -0.21944502
80 0.48359373 -1.0966516 -0.8355252 -0.050875507 0.91268414 -0.0064673508 -0.7541665 -0.089472696 0.33980715 0.27066168 -0.12199213 0.034761574 -0.26659676 -0.63493955 -0.65140754 -0.49126592
89 -0.075425215 -0.12067451 -0.019287396 -0.20442688 0.31404537 0.8444422 0.42954704 0.5171948 -0.07230363 0.24362844 -0.23929708 -1.4263071 0.12583153 -0.2344016 0.59702504 0.77980757
87 -0.17701603 -1.0832467 -0.12325644 0.5542029 0.66511565 -0.22416945 -0.012753182 0.5742263 -0.66006523 0.31165397 -0.78228813 -0.07595822 -0.23676614 -0.14011812 0.61606264 0.5332685
55 0.056029934 0.0732525 -0.2485405 0.71951807 0.20802929 -0.04216404 0.34420788 0.24092546 -0.26577526 0.845633 -0.31442812 -0.48134232 -1.232338 0.044602517 -0.43293235 0.8784984
62 -0.04011776 -0.4771325 -0.4019786 0.46327066 0.44019103 -0.23249812 0.0012780308 0.5092362 -0.5795074 0.15694548 -0.4664689 0.041139062 -0.47390005 0.23131609 0.48177746 0.95068276
88 0.97488433 0.10420804 -0.0872038 -0.1956359 0.93856335 -0.17726274 0.2068094 0.5256389 -0.37153363 -0.058361977 0.33607513 0.9088409 -0.26078117 -0.5813082 -0.13477679 0.9814867
85 -0.51411766 -0.11047499 -0.47340426 0.1554667 0.41167235 0.93483984 0.12648708 0.5452586 0.65419036 -0.064701885 -0.2833587 -1.3780755 -0.0052174716 -0.21980621 0.050834905 0.32528156
69 0.05996418 -0.053291786 -0.7380326 -0.18491028 1.2360685 0.3132937 -0.33057284 -0.44484553 -1.0481899 -0.50535387 -0.4943006 0.14059252 0.68624896 0.40629748 -0.8197961 0.5380833
64 0.043591682 0.30263954 -0.05581134 1.152624 0.86358255 0.31703576 0.39077094 0.9044558 -0.24359909 -0.05737865 0.2157994 -0.0028789253 -0.011410724 0.094155 0.063004844 0.7561552
82 0.8460568 -0.23221669 -0.44123343 -0.6146205 0.5651302 -0.8616564 0.23280264 0.42321286 0.60809815 0.39381823 0.4461155 -0.203687 -0.003301362 -0.13091242 -0.44408885 0.672907
66 -0.5145343 -0.4266232 -1.1612839 0.068478875 0.46013892 0.6598995 0.37752908 0.32282528 -0.33393592 1.3652062 0.5007873 -0.077024154 0.6008956 0.6611099 0.19217873 -0.008780302
81 0.5234343 -0.076220155 -0.5275076 0.46406448 0.30553475 0.13452534 0.6101445 0.009643049 -0.43991506 0.41382498 -0.2935066 -0.7449427 -0.9201701 0.32221362 -0.34910727 0.39093924
56 -0.35285547 0.030000571 0.16540468 0.8630747 0.875755 -0.09472572 0.16608912 1.2842027 0.43062925 0.11709159 0.18860777 -0.3015598 -0.098862804 0.57127845 -0.2287199 0.49962646
78 0.6153454 -0.05405964 0.00462303 0.2722251 0.5236218 -0.046036433 0.054781795 0.46166423 0.02857983 0.4781327 -0.15860863 -0.44079217 1.4328505 -0.038124014 -1.5348898 0.51978064
108 -0.14311562 0.7989359 -1.3317776 -0.69839895 1.2786437 0.36023277 0.14392447 -0.051408026 0.1857316 0.027493453 0.5139549 0.5429694 0.21522859 0.7952657 -0.592904 0.1139071
105 0.81067616 -0.8577403 -0.7207673 -0.37909076 0.80361795 0.44986132 -1.1619478 0.33001527 -0.2771996 -0.034663342 -0.31330147 -0.6467022 -0.31032127 -1.0661643 -0.9577488 -0.6280596
121 0.23873927 -0.31944403 -0.98938626 -0.64587224 0.60535085 -0.65398896 -0.7628227 0.61658555 -0.4616573 0.37126517 -0.63674235 0.2780656 -0.70695895 0.7924237 -0.7882456 -0.5092963
104 -0.3187602 0.1088574 -0.6626033 0.36175975 0.9973504 0.21797809 0.006174263 1.2985804 0.25080627 0.53776276 -0.25682995 -0.013196828 0.96449375 -0.2730467 0.91123796 -0.666772
110 0.25849676 -0.31780255 -0.5775138 -0.32415688 0.8964601 0.02589908 -1.3014861 0.50513965 -1.4722216 -0.098531894 -0.46209493 -0.36958477 0.015550579 0.1392908 -0.7422162 -0.21403936
145 1.0731944 0.46556944 -0.50285673 -0.5343718 0.76559377 0.2907453 0.15506634 0.8721644 -0.24936219 -0.76116127 -1.0451185 -0.33990103 -0.24059518 -0.20418523 -0.03123001 -0.46510473
124 0.43020678 0.013525593 -0.15394263 0.012178281 1.101816 0.50702447 -1.5284786 0.20700273 -1.0429313 -0.0038643416 -0.80749506 -0.105220884 0.16218829 0.047041923 -0.3302528 0.017868318
136 0.045983944 -0.09940665 -0.6665049 -0.54339457 0.5587033 -0.5934343 -0.9632742 0.69853336 -1.288675 0.37866032 -0.20959264 -0.47553203 -0.38188547 0.5601306 -0.94345915 -0.21154588
128 0.8381548 0.040227357 -0.68229073 -0.74353725 0.8668317 0.7569504 -0.48647577 1.0725051 -0.68860036 -1.2079701 -0.6677739 -0.26661715 -0.058943804 0.015103972 -0.18846077 -0.16125262
118 -0.8032508 0.42852178 -0.67219526 0.4204852 0.60901934 -0.07121236 -0.10503155 1.5343467 0.9724788 1.3600258 0.29645562 -0.39737418 0.32640815 -0.21848021 0.39091632 0.20825279
122 -0.17023733 0.9892252 -0.86857235 -0.9240293 1.0779363 0.73368376 -0.4984251 0.37294874 0.15745318 -0.9271084 -0.530204 -0.16130711 0.6214836 0.13788512 -0.32069856 0.5829887
129 0.3786546 -0.1221055 -0.586275 -0.5473297 0.49885824 -0.1734363 -0.9564815 0.7514927 -0.92084914 0.106762424 0.02713715 -0.5535556 -0.5499702 1.0058991 -0.34815523 0.33028054
111 -0.3232755 -0.22494797 -0.7419072 -0.08459951 0.45685694 0.34264895 -0.10241654 1.2447459 0.24577677 1.0671424 -0.0007070948 0.09464349 0.6429234 -0.24674413 0.75584185 -0.3296457
137 0.72592664 -0.3122293 0.1341997 -1.1534269 0.81761116 0.2101208 -0.39168265 0.040425714 -0.28103173 0.7447832 0.07486597 -0.30804607 -0.4328609 0.12865272 0.27258027 0.31318587
91 0.7400853 -0.38031295 -0.7152429 -0.6208686 0.8174034 1.1271045 -0.41814908 0.51990426 -0.22112624 -0.8432287 -0.51719975 -0.30796894 -0.54878956 -0.47726524 -0.34531733 -0.14890337
125 -0.43286142 -0.4820879 0.29336527 0.20367356 0.82563424 -0.39767462 -0.064293414 1.490532 0.5861014 1.1034245 0.14392634 0.00037412852 -0.061333872 -0.07330137 -0.38188776 -0.22752269
134 0.7286427 -0.28862762 -0.7227272 -0.035184324 0.43969992 0.48664144 0.57511526 0.7437596 -0.3233451 -0.09415431 0.35692307 1.202225 -0.40041092 -0.46191472 -0.17451403 1.1008794
131 0.77280265 0.3163479 -0.23089355 0.79436976 0.32658347 1.4928045 -0.20285547 0.20134835 0.459656 0.5813005 -1.0323502 0.045829985 0.16685756 0.15574485 0.10069748 0.26313797
103 0.020009574 0.37478137 -0.50005 -0.9498665 0.5285203 0.57528985 -0.25448105 0.57035047 -0.46442917 -0.04131813 -0.029000077 -0.56455845 -0.9841579 0.002254248 0.62107396 1.1079465
141 -0.16460758 0.5760499 -0.08016643 -0.36015388 1.1132323 0.07804894 -1.2970052 0.4679597 0.40657145 -0.2599117 -1.0384849 0.47543973 0.2064109 -0.06724442 -0.11949374 0.91303414
101 0.35094398 0.45900103 0.037338145 -0.3669738 1.5158734 0.027439296 -1.24749 0.15832286 0.5165394 -0.030978804 -0.7108796 0.20869312 0.120247334 0.119839735 0.47802487 0.7361392
139 0.5102204 -0.48431706 -0.2539684 0.28376648 0.5661304 0.1177077 -0.75558746 0.7574275 -0.20754606 -0.37743244 -0.47386616 -0.8823587 0.24563257 1.1767629 -0.193873 0.532896
99 0.98581225 1.2323378 -0.5144486 -0.6093967 0.265636 1.0023679 -0.10224149 0.9151176 0.12605174 0.21508177 -0.60472965 -0.020215264 -0.05732798 0.05721281 0.14564396 -0.3142469
107 0.35080308 0.70907193 -0.8021048 -1.1359406 0.910964 0.9071252 -0.41729385 0.8365867 -0.3233383 -1.0518796 -0.48653415 -0.22535706 0.049520794 0.0024795476 -0.04449066 0.2853055
94 -1.0671248 -0.32527858 -0.8012949 -0.24235854 1.1370949 0.6504618 0.43510664 0.2895553 -0.12860666 1.1991818 0.6123053 -0.00714795 0.49033934 0.775532 0.103694655 0.08065801
97 -1.1074922 0.74659526 -1.0421835 0.34788096 0.62920934 0.40562212 -0.066890605 0.981519 0.4495745 0.9408342 0.48222446 -0.7838942 0.0872166 -0.47371292 -0.07986445 -0.016642578
102 -0.4872015 0.36987123 -0.18206657 -0.06877559 0.791578 0.27960506 -0.04849409 1.2564671 0.86960226 1.7381512 0.24199535 0.026558954 0.762686 -0.22540288 0.43296152 0.16104193
133 0.30051583 -0.34342912 -1.1249083 0.010737726 -0.39229998 -0.4424641 -0.02984786 1.5594155 0.17498359 1.1468695 -0.055795304 -0.022414522 0.29285026 -0.7403922 0.44771606 0.17034248
96 0.254978 -0.40496203 -0.5693042 0.3960607 0.14567874 0.41596422 0.82192135 0.64867425 -0.5642539 0.028946662 -0.48373717 0.3889166 0.46111462 0.1125026 0.23771061 1.1869925
115 0.1322416 0.33898738 -0.5669684 -0.9273471 0.7731327 0.736773 -0.33515206 0.49747476 -0.25188598 -0.5622596 -0.33909246 -0.35630295 -0.69991356 -0.10739625 0.2530202 0.56498027
92 0.73679745 0.59014004 -0.29998326 -0.7179848 1.4176413 -0.10955602 -0.71122336 -0.03286042 0.1812045 0.017122174 -0.022909012 0.24557339 -0.16292264 0.6069761 0.34156787 0.89144427
106 0.7618083 0.37273553 0.2304668 -0.3200911 0.84562284 -1.053959 0.009007178 0.16969256 0.07594738 1.0944248 -0.5465642 -0.3795685 0.80138737 -0.20255263 -0.63480854 0.53504753
116 -0.5440814 0.58428425 -0.62935877 -0.9764625 0.37892914 0.6976575 -0.1026169 0.09700602 -0.61669195 0.7885998 -1.0861627 -0.0735389 -0.35186988 -0.18598992 0.57958895 0.35784787
135 0.12732153 0.0026666564 -0.4435931 -0.3002201 1.0511149 0.49881428 -1.0509689 -0.10644148 -1.2935137 -0.11130362 -0.57402885 -0.04208699 0.090185754 0.055071924 -0.6548143 0.15591374
114 0.5100451 -0.4877362 -0.35009512 0.46368402 0.22976796 0.25222632 -0.10476056 1.0435015 -0.49620113 -0.106227845 -0.26130524 -0.695366 0.15644737 0.9878285 -0.30977035 0.13011771
117 -0.18305889 -0.06988848 -0.19956073 -0.74517244 0.85060316 -0.11831236 -0.983815 0.4843062 -0.032402053 -0.25919396 -0.69694215 0.590731 -0.33171636 0.007369855 -0.43731064 0.9245991
126 0.3712081 0.48277667 -0.7737547 -0.37548724 1.2121139 0.26538876 0.00717272 0.37418142 0.18354721 -0.7485414 -0.70402443 -0.6614267 -0.23983985 -0.4055105 0.4785282 -0.33277005
144 0.3353602 0.68162566 -1.2738771 -0.9780971 0.46360877 0.19979589 -0.21643542 0.5511618 0.13109592 -0.28740135 0.04341988 -0.4116966 -0.2760147 0.20715402 0.32396626 0.16922045
140 0.011359509 -0.4189268 -0.19026521 0.22727437 -0.18559228 0.95819914 0.4658029 0.765217 0.9656904 0.8207732 -0.6461646 -0.020396939 -0.3515769 -0.039219193 -0.7546065 0.56575143
130 0.52849644 -0.30829412 -0.5345753 0.46583265 0.42686018 0.10039156 -0.13183458 0.46062124 -0.04281445 -0.50087976 -0.6196089 -1.1941437 0.29305586 0.6595335 0.12845288 0.74500316
100 -0.11748397 -0.28392127 -0.48519093 0.64002895 0.9339855 0.19752865 0.48538807 0.9777967 -0.020439368 -0.1198579 -0.4779139 -0.03274191 0.9713875 -0.18709962 0.6608634 -0.1622344
113 -0.75629467 0.5187524 -0.69799733 -0.5132236 0.65543014 0.49493003 0.35754883 0.2934926 -0.52087545 1.3146379 -0.5049011 0.08565414 -0.096299954 -0.100797094 0.7863297 -0.0655304
112 0.80059284 -0.2706788 -0.5524031 0.23772784 0.22054154 0.49359176 -0.1882959 0.5598627 0.11638447 -0.44623047 -0.5755261 -0.90026504 0.17958856 0.45968723 0.30068043 0.63821775
138 0.7044012 -0.48110458 -1.5913628 -0.22257406 0.43298003 -0.31848517 0.56918514 -0.1358955 0.2519588 1.2375973 0.6268787 -0.11987442 0.3844328 0.02499555 -0.060778126 -0.05860519
119 -0.02402123 -0.020250892 -1.1835744 -0.21443291 0.40589002 -0.61814445 0.14850515 -0.60352206 0.38429904 1.2055191 -0.3287709 -0.41254383 0.3148187 -0.56653404 -1.0789038 0.5961163
98 0.015559482 0.23871447 -0.9744873 0.08617856 0.58604705 -0.29266086 0.45161846 -0.3381487 -0.4301573 -0.46170118 -0.9850755 -0.5141802 0.5349598 0.22241743 -0.28059822 1.2350266
95 0.6813733 0.89271474 -1.0232975 -0.90364707 0.5180445 0.707281 -0.107074305 0.67237943 0.040919602 -0.43132365 -0.4431207 -0.2122498 -0.23327668 0.08703438 0.24583447 -0.046807002
120 0.42700508 -0.08138074 -0.63436085 0.95060027 0.786541 0.3846135 0.59117484 -0.27197143 -0.4659332 0.014319456 -0.43803 -0.6511329 -0.9107568 0.0507489 -0.5577474 0.3295426
123 -0.4937098 0.11789585 -0.783142 0.4477905 0.26024288 0.43183765 0.21852784 0.7628588 0.3132767 -0.1717017 -0.86012083 0.44704574 0.84961736 -0.06242545 -0.17860106 0.64160466
143 -0.037080575 0.05195871 -0.8216443 0.56751436 1.0619328 0.12638831 0.4020542 -0.49283427 -0.9664584 -0.6038421 -0.7543172 -0.37768844 0.3553406 0.3538497 -0.87069505 0.78321195
132 0.7538139 0.18902151 -0.13070162 0.16674814 0.62679213 -0.28832746 -0.20149787 0.25730515 -0.04142878 0.5838212 0.15426677 -0.58631265 1.2863178 -0.17122392 -1.2434434 0.613122
93 0.58533406 0.0969381 -0.38439974 -0.3530527 0.5599642 -0.7335041 0.076156564 -0.2138712 -0.115113355 0.6906394 -0.26766732 -0.62417763 0.5261347 -0.4824873 -0.65654767 0.6205146
109 0.5677483 0.04103904 -0.34101263 -0.31426877 0.006166255 -0.44303954 -0.2604205 0.70327073 -0.6709681 0.74745697 0.27771217 -1.1348146 0.43943036 -0.19160232 -1.2490579 0.5595419
127 0.23655078 -0.37390825 -0.20766403 0.3560968 0.1281099 0.99086565 0.07017419 0.58093387 0.059933677 0.070956595 -0.4310636 -0.89612025 0.4515448 0.15343384 0.39521265 0.8477877
90 0.81898767 -0.1475852 0.29582626 0.4758002 0.92063236 0.10248305 0.18448208 -0.42406374 -0.22591116 1.175709 0.053144943 -0.3816484 0.14310901 -0.41206974 -0.2908724 0.3844899
142 -0.23931865 -0.09670983 0.3822985 0.05553478 0.9301929 -0.53949606 0.7971395 1.0570074 0.34448192 0.055657107 0.09683342 -0.61879754 -0.03181397 0.0005090795 -0.21223244 0.50104743
246 0.58254325 -0.70976704 -0.6397001 -0.23414697 0.96312845 0.41458112 -1.6085159 0.35888466 -1.2358985 0.048773143 -0.519535 -0.5270057 -0.12891227 -0.60367835 -0.75534683 -0.42578986
280 0.30326807 0.10575204 -1.5570923 0.09352269 1.1989647 -0.28610826 -1.095396 0.35181913 0.30063415 -0.23538463 -0.28415766 0.32632187 -1.0742369 0.15856971 0.20986108 -0.08005705
216 0.5079598 0.82572913 -0.8638233 0.22532074 1.5035558 0.108844444 -1.2701123 -0.34869912 0.5099773 0.29184443 -0.2118449 0.3562276 -0.13431978 0.1945995 -0.11936334 0.026057377
287 -0.60487956 0.9165589 -0.8585475 -0.47905374 1.4971501 0.6949924 0.5231144 0.16969049 0.1600689 0.6828251 0.61783344 0.29293936 0.11762694 1.0385299 -0.51444685 -0.18539755
261 0.39070535 -0.5050313 -0.31626245 -0.10152673 1.101732 0.6158098 -1.6920722 0.2699384 -1.373225 0.17988756 -0.8775474 -0.20996678 -0.064731434 -0.48411882 -0.18927792 -0.14040866
163 0.9494612 0.27270278 -1.1212634 -0.53336805 0.6651796 1.1701554 -0.48908848 0.0677746 0.3165054 0.22796275 0.573363 0.544345 -0.57383484 1.0854309 -1.0060155 0.90220064
184 -1.1140457 -0.007693944 -0.95970273 -0.11388897 0.5762763 -0.3761319 -0.059394147 0.22297035 -0.1551949 1.050692 0.08141054 -0.25054818 0.62455326 -0.72875875 -1.272593 0.20552039
159 -0.9996787 0.09667728 -0.55744207 -0.27139112 1.556705 0.7612232 0.48645753 0.19861346 0.22609136 0.8232672 0.66983396 -0.02042434 0.089394584 1.2563643 -0.38711718 0.10571436
243 0.57780856 0.71796125 -1.2110181 -0.5815526 1.3307229 0.83466643 -0.41907492 -0.28507468 0.29366952 0.18402542 0.5592476 0.6437476 -0.05846142 1.0391256 -0.6983105 0.5232282
227 1.0072968 -0.11689439 -1.0154794 -0.3242459 0.42640874 1.4685323 -0.008887499 0.30365857 0.31623903 -0.05233284 0.23438345 0.67911893 -0.65948707 0.39862442 -0.7239876 0.6023314
213 0.2927826 0.22970203 -1.4181378 0.25544432 1.5369068 -0.119591825 -1.2607169 -0.12478519 0.6143908 0.13033837 -0.01863308 0.29787022 -0.45269617 -0.0069105662 0.118681565 -0.332411
186 0.07892924 0.0020020832 -1.5648863 -0.53388464 0.69589937 -0.78538555 -0.5237418 0.6680987 -0.21848513 0.042084888 -0.15046115 0.5726965 -0.65345764 0.5707921 -0.32085067 -0.24892081
245 0.47388345 -0.7165187 -0.5214032 -0.56548816 0.87951237 1.0763212 -0.61347973 0.5434754 -0.18068248 -0.5431363 -0.20698033 -0.75883466 -0.56746346 -0.86640847 -0.8707856 -0.42302817
151 -0.6342115 -0.04569121 -0.8199709 0.72509575 1.1466701 -0.108550385 -0.26927838 1.2214932 0.6792721 0.5942552 0.02001823 -0.19940042 0.39176178 -0.09387263 0.56868035 -0.6541761
155 0.8548901 0.36398333 -0.2755118 -0.4897425 0.5083877 0.15711446 -1.1506757 0.24803692 0.2991141 0.4352815 -0.7613863 -0.7253137 -0.692054 -1.2683035 -0.5989293 0.16331871
221 0.14884743 -0.7279012 -0.1492497 -0.35347185 0.88510823 0.50308 -1.1639849 0.41483188 -1.0072774 0.15189499 -0.8117662 -0.078724965 -0.39650828 -0.33971804 0.2783051 0.10137657
215 -0.5649577 1.2776738 -0.64931405 -0.088039525 1.2036533 0.7245376 0.59311074 0.43571693 -0.17332624 0.99749136 0.41854247 0.054132 0.2053097 0.47034407 -0.2613855 -0.41581157
299 0.2051323 -0.032150656 -1.3492986 -0.15469617 0.9343389 -0.76780474 -0.9104607 0.716859 -0.14113715 -0.2193177 -0.16397078 0.55344284 -0.8800172 0.44534126 -0.007328581 0.1836983
174 -0.4035255 -0.49144682 0.16003977 -0.2132302 0.5582594 -0.8565314 -0.16896363 1.8137627 0.068372935 1.3846048 0.23080803 -0.22782335 -0.110242076 -0.283795 -0.67600965 -0.15697679
148 -0.52459097 -0.27645692 -1.0148025 -0.18192776 0.4990846 -0.40887383 -0.16862391 -0.2604026 0.30371994 1.1700486 0.002641475 -0.2575497 0.49653015 -0.81523716 -1.1887658 0.44970962
262 1.0100259 0.34341955 -0.62748647 -0.12136697 1.3559831 0.58312154 0.43756774 -0.54947734 0.3147157 -0.0186541 -0.92515725 0.2885464 -0.1610326 0.5062547 0.5111498 0.2078483
156 0.47666517 -0.53320956 -0.44544408 -0.12860793 0.4779579 0.07065559 -0.7402373 1.0277203 -0.97783935 -0.23242946 -0.20308486 -0.5466627 0.014290592 1.0548544 -0.22435595 0.16530852
284 -0.36106083 0.49797025 -0.86993974 -0.7304788 0.17478643 0.55875427 0.26853165 -0.15391125 -0.62269205 0.41919193 -1.5613259 0.11150848 -0.04754777 -0.30718663 0.42092633 1.0052141
232 0.08962478 0.3031341 -0.9939985 -0.6762314 0.5070858 0.44997713 0.3336864 -0.13467064 -0.28120005 -0.08888205 -1.3797852 0.14201465 -0.6561228 -0.4671449 0.52694494 0.77387923
211 1.4498134 0.1590019 0.47489908 -1.1696229 0.7599864 -0.20954998 0.061688792 0.94385004 0.11626871 0.42442006 -0.94149077 -0.04816232 -0.054510348 0.32267144 -0.035808913 -0.2239149
168 -0.7510571 0.013621376 -1.1236273 0.3943828 0.17008488 -0.379641 0.22405761 1.3460988 0.8322594 1.0130892 -0.5349284 0.16113782 0.18758976 -0.022522924 0.3146006 0.075963266
233 -0.13385108 -0.10942046 -0.42442903 0.3046712 0.31810808 -0.0832631 0.13150136 0.45650485 -0.56755424 0.41365469 -0.40185937 -0.13383529 -1.3611215 0.0036170944 0.25572675 1.2711726
283 0.25510064 -0.026070192 -1.6541508 -0.23696423 0.9746896 -0.5569885 -0.19927917 -0.3105642 0.49368176 0.2394024 0.2598806 -0.13910443 -0.005549737 -0.5038943 0.07907414 -0.19461086
274 0.59423274 -0.82424164 0.012950581 -0.5809058 1.4724785 -0.053897347 -0.8288083 0.4483555 -0.037006807 -0.110525884 -1.0827446 -0.018082451 -0.11421195 -0.12321506 1.0964959 0.16661887
208 0.90245366 -0.5358829 0.012234743 -0.9030614 1.2269508 0.07980667 -0.24162963 0.40306807 0.1230314 -0.09714049 -0.8205607 -0.0039997264 -0.38066247 0.088082954 0.82973903 0.0937191
195 -0.5241534 0.124945395 -0.4750481 -0.2152215 0.49211448 -0.6442462 0.024885798 0.31978002 -0.58014315 0.8918287 -0.0736453 -0.29668272 0.4540747 -0.33359408 -1.3971069 0.18793505
295 1.0848902 0.6439015 0.45611545 -0.653597 0.6546076 -1.080514 0.15986027 0.7473813 0.3159955 1.0227449 -0.7283938 -0.40498316 0.26006338 0.05522989 -0.5134918 0.50875574
200 1.2435017 -0.09927291 -0.4686193 -0.5539137 0.47164947 0.18166855 -1.0289085 0.41077524 0.048702694 0.3269704 -0.74876934 -0.7532313 -0.42680046 -1.2716409 -0.9110017 -0.38678026
162 0.7921193 0.5958085 -0.66082466 -0.09714608 1.0815923 0.09870802 0.4918854 0.73523766 -0.2949986 -0.75090003 -1.0171417 -0.6645196 -0.13201715 -0.39546198 0.2354 -0.738619
277 0.9132363 0.118898794 -0.83104914 -0.7449054 0.21620488 0.52064484 -0.87548584 0.3128238 0.082727745 0.47030133 0.39767364 -0.025779076 -0.70613456 1.116505 -0.8519547 1.0735836
181 1.3677218 -0.9001655 -1.2525294 0.29943618 0.4775098 0.61740696 0.29578567 0.2586344 0.4803703 0.35504657 0.4052981 0.5944942 -0.50853205 -0.3864256 -0.79773 -0.047599934
289 0.31415936 -0.24806063 -0.104568206 -0.4577909 1.7264206 -0.019817375 -0.95225364 0.24222659 0.44099984 -0.2690674 -0.8162934 -0.086186185 0.04690087 -0.29688826 1.0536649 0.29648754
270 0.30060828 0.11775472 -1.0821629 -0.17701946 0.9206458 0.14414823 -0.5915 0.21006021 0.12660271 -0.22440393 -0.5213355 0.10530208 -1.1407744 -0.05817352 0.2777884 -0.01761509
192 -0.7780717 -0.13745248 0.05146263 0.006614655 1.5040939 0.6429809 0.41338038 0.19599482 0.43267936 0.4896055 0.30127615 -0.41495705 -0.22986522 1.2315648 -0.4691397 0.25810423
209 -1.5747248 -0.37894392 -0.7956565 -0.45061195 1.1692163 0.44299325 0.5903304 0.36699143 -0.31881237 1.0055298 0.3630293 -0.26425126 0.5432783 -0.027844857 -0.0012214183 0.084024206
201 0.6968582 -0.96565634 -0.16611671 -1.1020515 1.0172831 -0.07107686 -0.6012724 0.4644589 -0.4303639 -0.07834589 -0.70925504 0.105952114 0.06594213 0.6753229 -0.09680806 -0.17330004
188 -0.80183804 -0.22262743 -0.7773273 0.8411338 0.30409288 -0.37148103 0.15028694 1.2376437 0.94372296 1.0105042 -0.7481758 -0.11946618 -0.19392067 0.3821475 0.24569626 0.20368189
182 0.56111974 0.091446206 -0.23197038 -0.7544576 0.16043204 0.07555233 -0.75564176 0.25338092 0.013203695 0.47278404 -0.4578555 -0.66525805 -0.48138747 -0.9262373 -0.42645228 0.51936954
173 -0.6420426 0.5563717 -0.92314047 -0.09190773 0.7902428 0.41256285 0.18636607 1.0327562 -0.5940563 0.31535885 0.906992 0.75595456 -0.5055743 -0.7401351 -0.22696872 0.7508865
202 0.76265055 0.18176606 -0.46382365 -0.31625992 0.40450683 -0.39714053 -0.8015725 0.7782952 -0.29799017 0.49571204 -0.7085628 0.29497582 -0.6691047 1.1328005 -0.70899177 -0.08285777
236 -0.532459 -0.51483756 -0.60371804 -0.3302164 -0.1646758 1.1303267 -0.21130973 1.077322 0.49984804 1.2799555 -0.5542011 0.16272567 0.1413676 -0.3196544 -0.29949564 -0.060671724
248 -0.2958524 0.5987827 -0.19812547 1.1380779 0.8468757 0.54623246 0.3541811 1.2710992 -0.9680281 0.22104399 0.44842002 0.19717388 -0.0345328 -0.14518961 -0.06171634 0.6398515
276 0.57289755 -0.70492923 -0.38438708 -0.39733994 0.71335095 -0.6425515 -0.12590092 0.17959565 0.95831674 0.7036336 0.41814607 -0.1984879 0.39619792 -0.46118632 -0.62718797 0.8503212
171 0.61102235 -0.2879854 -0.34737363 -0.6694556 -0.017966898 -0.28357598 -0.20330879 0.4431879 -0.3004225 0.8092077 0.21501291 -1.0446267 0.45387715 -0.38008735 -1.1876415 0.78412086
282 1.035138 0.19041066 0.016853679 -0.13920283 1.0035176 -0.17309403 0.049029745 0.098382935 -0.2818119 0.54117143 0.541129 0.3748678 0.4517755 -1.0411338 -0.056966934 1.0542141
268 -0.3007931 -0.5268264 -0.24724919 -0.28278878 -0.15002541 0.93387157 0.14751416 0.96507347 0.95701784 1.4263813 -0.3940103 0.15915072 0.022292504 -0.36334178 -0.51896864 0.3776246
273 0.5380771 -0.5577843 -0.7347626 0.53219014 0.21942386 0.41716972 0.6780268 0.8405298 -0.6168084 0.07340351 -0.08690881 0.90133643 0.026438268 -0.22652087 0.26063177 1.1674829
178 -0.39210948 -0.1498943 -0.24758767 -0.02246176 0.41909584 0.84749526 -0.3642476 1.0907452 0.37517235 1.8914365 0.2853727 0.26298127 0.72898537 -0.20587903 -0.22455096 0.06754394
294 -0.85853076 0.1704919 -1.0887264 0.49219868 0.68044084 0.7043495 -0.1331371 0.6165748 0.66822916 0.33542898 0.31605726 -1.1908437 -0.03301863 -0.4737003 0.15272538 -0.09895357
161 0.4646068 -0.44960943 -0.3239943 -0.6291774 0.25348425 -0.22633667 -0.092654206 0.1037994 0.012494257 0.8858934 0.04689277 -0.55143553 0.7205293 -0.45241767 -1.1760899 0.66791403
220 -1.0794151 0.11813026 -0.8602019 -0.17106454 0.81511706 0.41734916 0.2122245 0.93676305 -0.16693854 0.75807166 0.7904972 0.6656 0.024743235 -0.9875847 -0.35330248 0.58078516
197 0.8454685 0.23949796 -0.46155536 0.4265369 1.2000695 0.8645498 0.7158044 -0.4528682 0.35413972 0.4155977 -1.0609771 0.24009457 0.2932377 0.57631844 0.69421095 0.2114546
259 -0.6178908 -0.18399386 -0.7067068 0.06823779 0.09092801 1.281059 -0.41763547 1.0352993 0.023914816 1.5876762 0.100098565 0.09490791 0.5543527 -0.14793791 -0.41323444 -0.1289577
263 -0.3359689 -0.57081676 -0.15286104 -0.45539308 0.19205572 -0.38076416 -0.23092474 1.8151621 0.10737088 1.621201 0.12971786 0.058203813 0.14311534 -0.5364667 -0.29052302 -0.07879846
285 -0.26736152 -0.0800921 0.10492728 -0.32764867 0.51613516 -1.0934056 -0.0005976593 1.3775954 -0.38624159 0.8735199 0.2443693 -0.47675255 -0.25588173 -0.23689711 -0.9510819 0.1375517
266 0.8840009 -0.100395 -0.18091513 0.40490738 0.23795372 0.03410698 -0.29321945 0.74557716 -0.22127195 0.3391476 -0.07821812 -0.81744903 1.32782 0.5394509 -1.1829381 0.50960404
158 1.1597791 0.6006325 -0.6304719 -0.40932176 1.509903 0.05086221 0.095072664 -0.4881595 0.29561025 0.022317898 -0.41460526 0.5976654 0.010819877 0.7508701 0.12461472 0.49569488
264 -0.45342848 0.79970115 -0.58912647 -0.48214835 0.87583345 0.41574502 -0.7723857 0.5731659 0.4071709 -0.68120146 -1.2387649 0.41900674 0.7734166 -0.02011867 -0.23493285 1.0479282
154 0.8465355 0.17782739 -0.60951656 -0.9080926 0.13655293 0.09957549 -0.6316916 0.12904513 0.09505205 0.5698746 0.37842843 -0.59251124 -0.45130795 0.5517973 -0.45411736 1.0684294
169 1.3130155 0.5590958 0.5250742 -0.62316877 0.6792739 -0.69688016 -0.050516162 0.9103127 0.15063354 0.7257046 -0.9668362 -0.097455256 0.040783715 0.4103792 -0.30106828 0.03309962
256 0.65285766 0.17471236 -1.0561188 -0.38621476 0.43708712 -0.94227314 0.09340789 -0.35447815 -0.075200886 0.85248286 -0.17396857 -0.8393846 0.26222768 -0.5091119 -0.3220556 0.3936317
249 0.805158 0.30830336 0.08066821 -0.48812565 0.8372943 0.13936152 0.079398334 0.18677041 -0.59476584 1.0671949 0.70744 0.12692946 0.6765805 -0.9892997 0.002954876 0.9123006
297 -0.9544713 -0.34582922 -0.58484995 -0.5262062 0.40691286 0.5033968 -0.17748089 1.0665785 0.2670061 1.1642473 0.16731358 0.14618936 0.3886672 -0.6539992 -0.32000732 -0.07650833
157 0.88822323 -0.47629464 -0.66796106 -0.12971787 0.49125248 -0.44574767 -0.014595854 0.05053473 0.5508837 0.7665426 0.35287747 -0.17412642 0.6373023 -0.33454844 -0.41489747 0.4213245
255 -0.37878627 -1.0501175 -0.3998456 0.9360068 0.426692 -0.30424637 0.25645465 0.7590461 -0.09069528 0.4622002 -1.4467096 -0.24848405 -0.28331894 -0.049989745 0.38012385 0.29680738
179 0.09732539 -0.24059846 0.016682956 0.15502478 0.6894935 0.13749443 -0.8581712 0.72328395 0.045316037 0.11350993 -0.20226176 -0.5498432 -0.38273403 1.5293211 -0.44388255 0.70987475
279 1.4309335 0.19479643 -0.24167873 -0.7453128 0.07308221 0.057605185 -0.31528395 0.5603623 0.061389163 0.44466123 -0.6556598 -0.69923496 -0.112877764 -0.80699456 -0.73233443 -0.21093918
254 -0.5460932 1.0090787 -0.72176516 0.5961383 0.73483974 0.67041326 0.18447027 1.1933242 -0.8708884 0.5041977 0.79923254 0.29965454 -0.21441819 -0.39249292 -0.11721362 0.49128714
190 0.8184543 0.11360463 -0.25698438 0.13186425 0.24946852 -0.21243754 -0.40151808 0.72007704 -0.42601663 0.6049337 0.26086214 -1.0228665 1.218978 0.09146444 -1.4121939 0.65024644
224 0.6899116 0.10812633 -0.3442636 0.74905 0.6491451 1.1991644 0.24973172 -0.007333662 0.15507288 0.5072709 -0.96956074 0.2961787 0.53893757 0.47399813 0.59445065 0.4423499
191 1.4066283 -0.7538344 -1.4905704 -0.019730413 0.34737903 0.01729252 0.5936078 0.29510492 0.5347836 0.6387574 0.6489924 0.22048123 -0.083361655 -0.24740176 -0.638645 -0.06316388
218 0.18592975 0.19722024 -0.88472176 -0.41625428 0.60359675 -0.9112053 0.30774087 -0.49322447 -0.036350973 0.92464125 -0.5225366 -0.41068912 0.5379778 -0.43348634 -1.09684 0.5697007
253 -0.9207067 0.45153767 -0.3441364 -0.5325083 1.227024 0.49882197 0.8496787 0.24161789 -0.5513006 1.2336922 -0.3892741 -0.1766898 0.2837154 -0.109305345 0.640258 -0.23048598
183 0.16025585 0.22969176 -0.89822435 -0.61640257 0.5713571 0.4537373 0.22967273 0.081365965 -0.20590577 -0.14837229 -0.9326818 0.11818993 -1.1023583 -0.54044294 0.5568217 0.8167058
172 -0.41452494 -1.0959762 0.20898856 -0.53400725 0.9065807 0.47849432 0.32109606 0.49976364 -0.16676949 -0.04773227 -0.8905463 -0.3967612 -0.46025822 0.05432929 -0.37541103 -0.12166349
240 1.3037415 0.2556311 -0.025580699 0.8380491 0.4565775 -0.2064021 -0.1539024 0.80295557 -0.13681507 0.23144203 -0.6713254 -0.39248243 0.15076728 0.8320082 -0.17754519 0.13698456
244 -0.32010785 0.420267 -0.83635783 -0.10337999 0.45541734 0.4223878 -0.09680486 0.32724774 0.43570867 -0.51376444 -0.49153104 -1.5289456 0.2805124 -0.0026255674 0.06180072 0.5224348
278 0.4958594 -0.57060003 -0.2465188 -0.15523683 0.81614727 -0.5117684 -0.30326685 -0.008712203 0.8535062 0.85156435 0.3289521 -0.3098642 0.61484635 -0.587107 -0.46627262 0.86418927
298 -0.7282248 -0.16152938 -0.43292978 -0.24120456 0.74190485 0.3816134 0.22656955 0.8152292 0.14893647 1.2021383 0.58308977 0.5693055 0.25549713 -0.66489285 0.02316114 0.3447915
271 0.6289869 0.21863297 -0.17842248 0.55903566 1.0035514 0.49478927 1.0759227 -0.19377486 -0.07585723 0.53675157 -0.81255484 -0.16917178 0.3378279 0.34115165 0.3739763 -0.02929218
187 -0.26572946 0.5702625 -0.2824205 -0.22559318 0.92230105 0.48249537 0.17718302 0.9706734 0.46620643 1.3118893 0.13982058 0.14527352 0.8554295 -0.23130953 0.7222858 -0.1552297
231 0.642392 -0.312098 -0.61274135 -0.52321655 0.54722923 1.2929293 -0.3937034 0.37825733 -0.17128289 -0.3126605 -0.40207955 0.103197634 -0.72084206 -0.28374946 -0.2623965 0.08081544
258 0.6627101 0.20468166 0.10100686 1.2034498 1.110571 0.31628865 0.172428 0.5504442 -0.05929477 -0.082661115 0.17154245 0.18340878 -0.4874782 -0.45445496 -0.030505778 0.6907238
257 -0.11991341 -0.6143782 -0.72894645 -0.5095658 -0.23806582 -0.083664246 -0.29472747 1.7928145 -0.09720568 1.3695395 -0.01219119 -0.037462074 0.12336096 -0.6002187 0.1426609 -0.1573478
210 0.35237917 -0.6995223 0.7641138 -0.52995557 1.1880131 -0.004771381 0.48077342 0.7581028 0.14351183 0.455352 -0.19711113 -0.18137544 -0.09313215 0.36352056 0.26402417 -0.08282307
265 0.8509783 0.28139532 -0.05488146 0.32275376 1.179321 0.1586771 0.22184213 0.45602784 -0.10107295 -0.40931153 0.070890196 0.35300148 -0.6234351 -0.66224724 0.17708509 0.70955443
194 0.8178157 0.4654406 0.25163183 -0.56531453 0.3732722 -0.97110754 0.30613655 0.7725581 0.29336822 0.79220885 -0.25185746 -0.6704648 -0.1453632 -0.26378664 -0.5939762 0.75157
239 0.23922159 0.4211003 -0.36127314 -0.8627863 1.16483 -0.109566785 0.020236736 -0.37523723 -0.10737436 -0.015289581 -0.171985 0.12503754 0.8897307 0.22574651 -1.1970046 0.6122838
207 0.115824975 -0.5096933 -0.54822356 0.09534717 0.8857141 0.38598457 -0.4632586 0.21004082 -1.0182207 -0.4076443 -0.38853976 0.23122407 0.9082647 0.5185243 -0.12203446 0.4109299
286 1.0967816 0.6022586 -0.5453326 0.04916316 0.17447233 1.6079481 -0.15746991 0.5242842 0.20990245 0.26670018 -0.8083586 0.1948918 -0.18603846 0.10986146 0.06426972 0.032070436
206 -0.13199906 -0.5215889 -0.14261745 -0.5190786 0.74694467 0.8966541 -0.27556363 0.6035709 0.059284747 -0.35709748 -0.32369846 -0.6461238 -0.7254659 -0.3957933 -0.711931 -0.22681856
160 -0.8625517 0.8508743 -1.0320004 0.04164954 0.45070207 0.25401425 0.36423138 0.712183 -0.3642675 1.0904005 -0.3695035 0.1525301 -0.1268412 -0.13830522 0.34713164 -0.2048629
196 -0.010581742 0.09638088 -0.050561786 1.0571243 0.6459297 0.29668105 0.450335 1.1240493 -1.0811491 0.3290969 -0.024497705 0.30998665 0.009180725 -0.094603226 -0.18762192 0.32283193
193 1.1015275 0.017237144 -0.23035735 -0.42933446 0.020926807 0.44059512 0.85458124 0.83026195 0.40970308 0.13476002 -0.67471683 -0.17540894 -0.10843965 0.14149292 -0.7496587 -0.1916623
149 0.15945096 -0.4387327 0.67328674 0.7832777 1.0577183 0.328972 0.037855413 0.58590466 0.20825991 0.69979674 -0.067625195 -0.12645042 -0.6481236 0.48828486 -0.52274114 0.15795323
226 1.0374526 0.007627911 -0.08948025 1.1728098 0.4835116 0.033343628 0.17221226 0.4992804 -0.2792773 0.3127705 -0.52309275 -0.36936054 -0.18458022 0.31417307 -0.21477038 0.24072967
269 0.0753106 0.3984762 -0.46881297 -0.4226454 0.7512728 -1.4400083 0.069981694 0.22411501 -0.85487723 0.9374923 -0.39447016 -0.5968503 0.50330245 -0.06835756 -0.8523535 0.23288555
251 0.4716584 0.17642148 0.25814712 0.26382762 1.0368364 -0.0023604038 0.77751803 -0.34823927 -0.3681067 1.0898392 -0.34945753 -0.26761624 0.65197986 -0.3716311 -0.6048586 -0.0012799165
152 0.51601964 0.36396655 -0.48114926 0.38502333 0.8035841 0.08297016 0.9691399 0.7207993 -0.43187478 -0.3695181 -0.92662615 -0.6679378 0.09942785 -0.31208587 0.093464196 -0.54611164
175 1.0154047 -1.0342255 -0.76626265 0.80898684 0.77559 0.3354076 -0.13253231 -0.019915784 0.18522136 0.4315812 0.08371467 0.37918532 -0.60813177 -0.47939953 -0.8761136 -0.27567235
198 0.5116717 0.67748946 -0.21737218 -0.05998206 0.98554987 0.38195214 -0.68896776 -0.062143058 0.30368462 -0.028391276 -0.95303243 -0.21717505 -0.66559994 -0.4951862 -0.07806778 0.21167168
300 0.023114776 0.06799637 -0.45697585 -0.3595843 0.010395885 -0.15751794 0.28523406 -0.25157234 -0.025364809 0.8086627 -0.8953807 -0.035610892 0.73941445 -0.20099525 -0.7200261 1.4079535
290 0.41813156 0.007890531 0.05478763 -0.37449223 0.80319065 0.3918927 0.001920295 0.10061655 -0.47550556 1.429157 0.6947952 -0.07855969 0.5137026 -0.64877874 0.35064995 0.4486498
214 -0.4853634 -0.504005 0.20281973 -0.14663006 1.2632957 0.69844663 0.7010152 0.30587786 0.37945208 0.12787226 0.070038125 -0.6174337 -0.11273863 0.6604047 -0.21041036 0.14891338
241 0.74830425 0.439994 0.03872966 1.061375 0.634303 0.88584924 -0.6274362 0.044877853 0.25079134 0.5788109 -0.8257397 0.14373693 -0.1250031 -0.0785904 -0.13454045 0.32708886
296 -0.40808132 0.048919003 -0.17974786 0.049589954 0.73209214 0.72287595 -0.11273818 1.0035847 0.39938766 1.8202263 0.31500825 0.23963928 0.7975433 -0.026386915 0.29960695 0.08697274
176 0.16393869 -0.09535284 -0.77727664 0.9383815 0.8488252 0.29115564 0.6196949 -0.3672255 -0.72744095 -0.32972535 -0.6144972 -0.5586547 -0.21416716 0.18376279 -0.7220329 0.5352424
260 -0.30663002 -0.8152559 0.41806844 -0.22183165 0.9528605 0.3206016 0.64301395 0.47343665 -0.41692877 0.22063869 -0.5656695 -0.3196171 -0.021169987 0.085952334 -0.19862524 -0.013127798
153 0.012834418 -0.31423762 -0.15907133 -0.43782288 0.4038526 -0.2737783 -0.13548638 0.3373716 0.45504662 1.1596161 0.0010474203 0.15601988 0.79523396 -0.4517018 -0.70358527 0.47634843
167 0.7948118 0.28367543 0.012722942 -0.60994226 0.4415687 -0.057399787 0.1728562 0.09894355 -0.43756682 0.89452803 0.22838648 -0.3083836 0.6038744 -0.8296516 -0.5686329 0.9132341
205 0.40319532 0.39330795 -0.03224966 -0.4597752 0.80851984 -1.2096572 0.11189669 0.15000397 -0.3612971 1.1072189 -0.55434644 -0.38434222 0.8216255 -0.09094525 -0.9026585 0.41871148
164 -0.88403803 0.5528015 -0.96625584 -0.08163855 0.72946936 0.23470445 0.2625092 0.86095965 0.10137886 0.7011447 -0.22280617 0.25264564 0.7019038 -0.70111936 -0.06222264 -0.46273673
275 0.5033974 -0.35085326 -0.7454755 -0.034952067 0.7251217 -0.51776266 -0.28605172 -0.3995213 0.51280844 0.99614364 0.14039117 -0.4478602 0.6744949 -0.5784715 -0.30944923 0.45457947
242 0.5101548 0.38044825 -1.0789226 -0.7503506 0.88284624 -0.84155625 0.38410336 0.06447756 0.050425544 -0.21668766 -0.35937232 0.5123404 -0.036550246 0.13958251 -0.14077616 0.42122683
237 0.6337679 0.047261648 -0.3915321 0.06894402 0.388638 -0.41059622 -0.15357435 -0.009652584 0.18563032 0.1949722 -0.09971862 -1.1779895 0.56729525 -0.37854144 -0.050351348 1.0677294
228 1.1562719 -0.6329097 -1.5855596 -0.21092984 0.40358907 -0.22711998 0.7390356 0.15850748 0.4418071 0.914998 0.7225853 0.03703841 0.17388785 -0.06980247 -0.3502064 -0.1029383
212 -0.67307633 0.5182145 -0.7803593 -0.0070816376 0.40799916 0.3260747 -0.11189005 0.49837825 0.26277876 -0.2827605 -1.3191078 0.52306455 0.9726705 -0.055724844 -0.1147351 1.22785
229 -0.20222545 0.3763434 0.41888154 0.110633425 1.0884945 0.43219453 -0.79367465 0.23149313 0.19728394 0.2852986 -0.49212468 -0.15334131 -0.68358207 0.35949132 -0.44021785 0.34625593
199 0.09939614 -0.7368058 -0.3627278 0.49185422 0.1990911 0.49312288 -0.03509151 0.17616539 0.4541218 0.4497285 -0.27660218 -0.1767927 0.7276828 -0.20299566 -0.25125292 0.74016064
247 -0.4333467 1.028816 -0.45261967 0.18136397 0.3057107 -0.3084444 0.119453326 0.7410741 -0.79540277 1.1748486 0.2674724 -0.67175645 -0.550735 0.038549926 -0.8785702 0.030734157
177 0.42777175 -0.115575984 -0.14294322 -0.08775464 0.09252793 0.26136214 0.57726103 0.35453853 -0.11165707 0.34615135 -0.19810411 -1.3075491 0.13331507 -0.3960389 0.13339117 0.68103725
250 0.055562124 -0.49640313 -0.40435869 -1.0366129 1.082949 -0.3228464 -0.54005396 -0.07561077 -0.048442535 -0.247917 -0.95421755 0.68125504 -0.09935032 0.07850545 -0.97631735 0.57743305
225 -0.07120172 0.68262583 -0.16246688 0.26636252 0.31050012 -0.52354115 0.4793134 0.6398063 -0.42764533 1.0075389 0.18416551 -0.6167063 -1.064056 -0.13927498 -0.86386716 0.5712945
180 0.39416018 -0.04898129 -0.66265357 0.33595586 0.9710145 0.44200662 0.6392442 -0.16886759 -0.057453506 -0.42667168 -0.56513727 -0.67146015 -1.0756464 0.00051637366 -0.30019176 0.16489932
219 0.29157075 0.60676783 -0.012779058 -0.21830623 0.8780849 0.44851807 -1.0474117 0.055216588 0.07485665 0.3445756 -0.7929933 -0.11237996 -0.6165006 -0.4398667 -0.25029242 0.18315245
292 -0.13990995 -0.5859972 -0.46900415 0.9087995 0.49682185 -0.18953504 0.70016074 0.7748096 -0.094057985 0.034356263 -1.156303 -0.2969607 -0.093540624 -0.13454695 0.08236426 0.041656256
238 0.52715 -0.37974274 -0.13815854 -0.11558302 0.56408745 -0.19118173 0.032523256 0.13238572 0.2780342 0.68365794 -0.029680088 -0.26577458 1.1776011 -0.24393232 -1.3123806 0.53029203
230 0.05656676 -0.4463454 -1.3411255 -0.10275047 0.47912797 0.20504908 0.5255374 0.1023241 -0.116618484 1.5265934 0.630416 0.028259918 0.49379748 0.32485202 0.30849385 -0.18938914
185 0.12109418 -0.54697657 -0.41642195 0.6105714 1.1710249 0.055212718 0.6239289 0.4844931 -0.026169622 -0.314376 -0.33982903 -0.47323948 0.5691796 -0.22572677 0.68497753 -0.013092811
146 -0.018921642 -0.27210385 -1.0855784 0.7029912 -0.08453046 -0.13695462 0.14634559 1.2441736 -0.29005373 0.69981796 -0.23930463 0.29548246 0.2041212 -0.64949167 0.4361701 0.121158354
281 0.2271948 -0.22225848 0.2763738 0.55701876 0.43918142 0.39560023 0.3906434 0.78445 -0.007876684 0.27538842 -0.45403093 -0.2695063 1.017555 -0.11505948 -1.322869 0.24708551
204 0.05506297 -0.3610724 0.15818615 0.2530935 0.72073895 0.1898966 0.8227979 0.47216913 -0.47259274 0.2691508 -0.24566899 -0.43842533 0.17243019 0.15482277 0.035928536 0.24854867
293 0.06729161 -0.2798222 -0.046207435 0.71750146 0.2031342 0.86393106 0.37338573 0.85169303 0.44983014 0.108695336 -0.76299965 -0.30212295 0.8414125 -0.3487976 -1.0667377 0.28234485
234 -0.17506665 -0.3043895 -0.16053814 0.21661809 0.1248973 0.16807494 0.9602267 0.78143144 -0.62844497 0.47330788 -0.87829345 0.2032882 0.366842 0.81975895 -0.43655226 0.75022787
150 -0.32705382 1.1245425 -0.40203795 -0.81495786 0.39005697 0.95446664 -0.22135025 0.4365832 -0.4817351 0.7040463 -0.7601896 -0.69023323 -0.24189378 -0.17996182 0.7816759 0.5016721
223 -0.3538536 -0.6858663 -0.9125245 0.47489518 0.2116059 0.5955742 0.56193596 0.41284138 -0.4625653 0.7576378 -0.112522185 -0.09081935 0.59318644 0.89637095 0.18693379 0.4047139
147 -1.092676 -0.24066086 -0.19436492 -0.42263684 1.2617245 0.34700587 0.9090875 0.20854157 -0.5535335 0.90950763 -0.084667385 -0.51209 0.42194152 -0.12158095 0.4030332 0.02215463
267 0.14996459 -0.80409306 -0.6175085 -0.8242726 0.86171407 0.16794667 -0.17782725 0.0052329856 -0.065449655 -0.1177988 -1.1282054 0.06622505 -0.81965697 0.04206054 -0.14040782 -0.09963428
235 0.42852432 0.03908931 -0.4648457 -0.32978198 0.4739248 0.35105756 -0.12945098 -0.007995094 -0.44585457 0.3391536 -0.21928512 -0.6012702 -1.1711537 0.32653213 0.03353139 0.37308964
170 -0.13463576 -0.121696115 -0.49951705 0.014928311 0.05055543 0.2395242 1.0173165 0.6143138 -0.69177574 0.21701962 -1.078152 0.3845799 0.6521926 0.4821158 -0.10797808 1.4120584
189 0.94760656 0.42375055 -0.12260762 -0.9365401 0.6736592 -0.02572336 -0.007010052 0.51733464 -0.15485536 0.0672956 -0.66876674 0.35020223 -0.42575184 -0.015516378 -0.21490303 0.004337822
272 0.8878876 -0.30400273 -1.1394862 -0.29336825 -0.34329075 -0.61069846 0.1646814 0.8599286 0.20937672 0.8909368 0.17207114 -0.31599358 0.23179744 -0.59999394 0.06746794 0.32587916
166 0.006255838 -0.5980849 -0.23788676 0.10013076 1.4391721 0.065411605 0.3831377 0.17583485 0.13582115 -0.28902122 -0.2352087 -0.52880126 0.31831688 -0.42589438 0.79911953 -0.006336332
165 -0.1719077 0.55981976 -0.2660546 -0.8227869 0.28053075 0.9183792 0.07013741 0.660799 -0.43059033 0.34112948 -0.2969623 -1.1225023 -0.41018862 -0.15263383 0.89983296 0.9697685
203 0.11625295 -0.3605666 -0.42971563 0.37929904 0.7187377 0.44170657 0.828987 0.2978435 0.0781294 -0.32403848 -0.4209974 -0.76649046 -0.70202464 0.09402097 -0.4204977 0.07302162
291 0.06125088 -0.09185171 -0.27471974 0.6475148 0.80369496 0.0782798 0.71175325 0.11602654 -0.71083945 -0.24377859 -0.598202 -0.27900487 0.240079 0.36678746 -0.60879105 0.4486155
217 0.07315433 -0.48748225 -0.17350794 0.4925115 0.4449446 0.26558155 0.8915402 0.65033334 -0.42941183 0.18737486 -0.5142451 -0.43664306 -0.09598024 0.5076383 -0.4282668 0.060516477
222 0.15105699 0.2544134 -0.26556122 0.44176453 0.9775316 0.040843766 1.2688477 0.6129934 -0.20147133 0.11318077 -0.96619964 -0.36177522 0.40720508 -0.4870814 -0.02264366 -0.68806595
288 -0.23827004 -0.72232896 -0.39422646 0.2634998 0.3213678 0.53771764 0.9264183 0.81620556 -0.18042368 0.134377 -0.63603544 -0.57749885 -0.26543444 0.7333468 -0.5268455 -0.033103637
252 -0.3263799 -0.24156517 0.03787954 0.13262963 0.79218435 -0.05932108 0.9926621 1.1534333 0.44093013 -0.29870024 -0.391715 -0.55277425 -0.090673216 -0.22343503 -0.36091572 0.00385203
